/*
 * classification_system.c
 *
 *  Created on: 1 de mai de 2019
 *      Author: Jefferson
 */
#include "classification_system.h"

float weightInputHidden[NUMBER_OF_INPUTS][NUMBER_OF_HIDDEN] =
{
{-0.791852, -0.581901, 0.773458, 0.123145, 0.802035, 0.138600, 0.809985, -0.022762, -0.396385, -0.580354, 0.104570, 0.137025, -0.012064, 0.804124, 0.423953, 0.097277, -0.080226, 0.253071, -0.207306, 0.923830, 0.888052, },
{-0.855822, 0.322138, 0.030159, 0.828242, 0.416485, 1.077654, -0.765873, -0.278619, -0.002470, -0.689029, -0.742060, 0.414403, 1.140113, -0.950512, 1.176504,
-0.117048, -0.667234, 0.882794, 0.471814, -0.760216, -0.331238, },
{0.697882, 1.131835, 0.912075, -0.256162, 0.987301, 0.783543, -0.633183, 1.303506, 0.085745, 0.730404, 0.289912, -0.410717, 0.588537, -0.633837, -0.851302, -1.124446, 0.219155, -0.036649, 0.127876, -1.230539, -1.099984, },
{1.390760, -1.514476, 0.184721, 1.279095, 0.690393, -0.292171, -0.190379, 0.669277, 1.297646, -0.570340, 0.040197, -0.147054, -1.667446, 1.082866, -0.212895,
0.692188, 1.096871, -0.947786, 0.991694, -0.457220, -0.673153, },
{-0.484403, -0.486379, -1.612526, -1.329029, -0.432914, -0.902886, -1.518452, 0.721945, 0.394035, -1.354121, 1.299980, -0.671208, 1.071036, -0.222895, 0.846125, 0.574918, 0.745247, -0.371276, -1.403426, 0.008641, -0.362510, },
{-0.474083, 0.045197, 0.424113, 0.314560, -0.698740, 0.570673, 0.212277, -0.251538, 0.491535, 0.783755, 0.409094, -0.154805, -0.585819, -0.876481, 0.704210, -0.849843, 1.340869, 1.388371, -1.170787, -0.142894, 0.268224, },
{0.042824, -0.400349, -0.569123, 0.071516, -0.430556, 0.750667, 0.510792, -0.018394, 0.433317, 0.798597, 0.697828, 0.492149, -0.637081, -0.025639, -0.341747,
-0.613698, 0.001386, -0.189765, 0.243484, 0.020261, -0.956907, },
{0.694772, 0.551900, -0.274681, -0.292723, 0.336461, -0.449286, 0.501782, -0.194636, -0.500489, -0.736950, -0.618660, 0.280157, 0.412595, 0.478279, -0.073832, -0.571359, -0.488025, 0.383292, -0.424349, -0.339712, 0.182134, },
{0.174436, 0.335982, 0.026270, -0.267083, -0.535484, -0.530512, 0.140540, 0.192812, 0.238559, 0.626202, -0.204491, -0.362829, 0.232070, -0.216492, -0.347902,
0.464151, -0.200404, -0.140803, 0.095675, -0.101981, 0.005297, },
{0.544783, 0.406692, 0.065922, -0.275158, 0.243081, -0.475634, 0.402641, -0.069206, 0.215351, 0.251244, -0.459784, -0.013158, -0.174555, -0.192628, 0.401105,
0.521858, -0.278126, -0.127817, 0.347099, 0.696401, 0.681399, },
{-1.039913, -0.810144, 0.179115, 1.047068, -0.189776, -0.564625, -1.444390, -0.625514, -0.839947, 0.121011, 0.975332, -1.610846, 0.125408, 0.551598, -1.522397, 0.897616, 0.601096, 0.413104, 1.053523, 1.084237, 1.287097, },
{0.551194, -0.796379, -1.265011, 0.228431, -0.173983, 0.101784, 0.399647, -0.518875, 1.303999, 0.196772, -0.328876, -1.011372, 0.155129, 0.786522, -0.874428,
-0.712981, -0.359264, 0.298915, -0.406732, 1.205173, -0.824745, },
};
float weightHiddenOutput[NUMBER_OF_HIDDEN][NUMBER_OF_OUTPUTS] =
{
{-0.892179, -1.200195, -0.525369, 1.151508, -0.595717, -0.731975, 1.521273, 1.463066, -0.730705, 0.722848, 0.804698, 0.786723, -0.266326, -1.221446, 0.086588, -0.573646, -0.795569, 0.481023, 0.080161, 0.613219, -0.809815, 0.708225, },
{-0.970228, -0.531749, -0.382092, 0.993936, -0.717446, 0.818897, 0.406428, 1.035083, 1.562727, 0.502793, -0.691082, -0.082463, -0.378729, 0.876015, 1.286967,
-1.077535, 0.535991, 0.785530, -0.993737, -0.649982, -1.070757, 0.664400, },
{0.401533, -0.486146, -0.218145, -0.391297, -0.567118, 1.190165, 0.778295, 0.948769, 0.750087, 1.570445, -0.821892, -0.854680, -0.715615, 0.511731, 0.129453,
0.414399, -0.681383, 1.180459, -1.375306, 0.813105, 0.679849, -1.488276, },
{0.604869, -1.255554, 0.316267, -0.599138, 0.885603, -0.774148, 0.301968, -0.630935, 0.136242, 0.535086, -0.804641, -0.553500, -0.177235, 0.683988, -0.384564, 0.938198, -0.437695, -0.679949, -0.324678, 0.808758, 0.357463, -0.040774, },
{0.573577, -0.911862, -0.953443, -0.084218, 0.445966, -1.040858, 0.473629, 0.442957, 0.135912, 0.144323, -1.190865, 0.921823, -0.354460, -0.488274, 0.948555,
0.673219, -1.095557, 0.698464, -0.419177, 0.289482, 0.537723, 0.758765, },
{0.772570, -0.656855, -0.692410, -0.791957, -0.861331, 0.262628, 0.789661, -0.564585, 0.283491, 0.163812, -0.714224, -0.313283, 0.735121, 0.128755, -0.333694, 0.673178, -0.655449, -0.222271, -0.697602, -0.365798, 0.621756, 0.624313, },
{-0.226388, -0.871885, 0.894347, 0.527145, -1.028118, 0.686413, 0.673116, 0.864156, -0.927275, 0.873976, 0.663243, -0.598977, 0.783647, -0.828882, -1.055123,
-1.135583, 0.642869, -1.169152, -0.628120, 0.976602, 0.990151, -1.320841, },
{-0.240795, -0.714685, -0.285716, -0.566079, -0.580022, -0.769493, -0.106658, -0.768761, -0.241851, 0.826933, -0.236872, 0.885059, -0.209749, -0.462238, 0.676309, -0.785702, -0.125185, 0.685573, 0.830444, 0.313423, -0.360111, -0.109142, },
{0.126028, -0.694314, -1.069116, -0.738762, 0.859120, -0.786836, 1.040875, -0.422072, -0.558634, 0.978739, 1.127068, 1.021560, -0.366919, 0.711959, -0.669445, -0.387841, -0.790717, -0.891025, 0.927780, 0.574854, -0.633050, 0.892717, },
{0.855796, -0.589525, 1.529977, -0.901645, -0.974466, 1.301266, 0.655566, 0.171088, -0.676927, 1.310598, -0.730587, 0.163894, 1.055238, 0.762440, -0.915630, -0.364606, -1.045351, -0.259915, -0.496180, -1.183532, -0.915924, -0.738214, },
{1.198830, 0.775741, -0.923392, -0.898579, 0.895076, -0.787448, -0.778757, -1.172703, -0.530107, -0.665480, 0.323250, 0.893970, 0.834255, -0.169758, 0.692691, -0.237829, 0.375721, 0.904446, 0.816021, -0.523073, -0.126325, -0.790860, },
{-0.941103, -0.644552, -1.035751, 0.720139, -0.703746, 0.601402, 0.862132, 0.826563, -0.898295, 0.842325, -0.817315, -0.971829, 1.104345, -1.205973, 0.882007, -0.591634, 0.478655, 0.054574, 1.302416, 0.976134, 0.702671, 0.502504, },
{-0.662271, 1.018192, 0.167831, 0.344577, -0.617315, -0.555406, -0.822016, -0.784607, 0.535148, 0.174697, -0.776862, 1.276201, -1.063127, 0.872984, 1.188725,
0.786214, 1.184956, -1.473639, -0.682122, -0.769538, 0.620279, 0.676273, },
{-0.500895, 0.101497, 0.773344, 0.356822, 0.728701, -0.941708, -0.726071, -0.291419, -1.247346, -0.575002, 0.902301, 0.301642, 0.515266, -0.690415, -1.132732, 0.955599, -0.957295, -0.063418, 0.157850, 1.228909, 0.957047, -0.676712, },
{-0.614295, -0.301440, -0.549978, -1.095587, -0.447974, 0.309897, 1.593486, 0.713274, -0.434208, -1.194316, -0.214115, -0.725043, -0.705341, -0.589381, 1.574417, -1.185843, 1.095749, -1.093697, 1.049549, 0.964163, 1.267891, 1.384394, },
{-0.363528, 0.514304, 0.964229, -1.196458, 0.531566, -0.852827, -0.495898, 1.273552, -0.484730, -0.537561, 0.502221, -1.124108, -0.781850, -0.213204, -0.137749, -0.258081, 1.270113, 0.823438, 0.626468, 0.308105, 0.302915, -0.528842, },
{0.918205, -0.534917, -0.743247, -0.563559, 0.703750, 0.179860, 0.461749, -0.677023, -1.010361, -1.286025, 0.529658, 0.764307, -0.591574, 0.907234, 0.793085,
-0.902224, -0.724584, 0.571525, 0.314308, 1.107870, -0.689580, -1.211165, },
{0.774823, -0.195148, 0.053580, 0.111412, -0.124617, -0.136585, 1.161101, -0.159461, 1.076590, -0.558109, 0.120016, -0.047137, -0.156488, 0.962485, -0.014055, -1.118271, -0.470017, -0.190672, -0.110704, -0.112610, 0.427732, -0.887961, },
{-0.338147, -1.154819, 1.249881, -0.780946, 1.053441, -0.727130, -1.292703, 1.317009, 0.747121, 1.030228, -0.891328, -0.975636, 0.526062, -0.131695, -1.091686, 0.574349, -0.753152, 0.760697, -0.941286, 1.116889, 0.491884, -0.022630, },
{0.866853, 0.796018, 0.697065, 0.456772, 0.369260, -0.428564, -0.070162, 0.274760, 1.141504, -0.589024, 1.363372, -0.452263, 0.839711, -0.955547, 0.011953, -0.904400, -1.079296, -0.912069, -1.166103, -0.755012, 0.426469, -0.751421, },
{1.252912, 0.543326, 1.198087, 0.720393, 0.463222, 1.278745, -0.617710, 0.849416, 1.143694, -0.402129, -1.164760, -0.564848, -1.388010, -0.973496, -0.691847,
-0.853376, 0.756412, -0.851091, -0.158379, -0.151196, 0.980286, -0.810216, },
};
float biasHidden[NUMBER_OF_HIDDEN] = {-0.156890, 0.253833, -0.116505, -0.161675, 0.559936, 0.178867, 0.324112, -0.243933, 0.004618, -0.193819, 0.409474, 0.028555, 0.267728, -0.441773, 0.485481, -0.480418, 0.441118, -0.261256, -0.354865, -0.341098, 0.198818, };
float biasOutput[NUMBER_OF_OUTPUTS] = {0.193858, 0.007885, -0.176331, -0.158349, -0.050708, -0.332052, 0.150829, -0.231968, 0.070835, -0.175611, -0.101743, 0.001513, -0.089162, 0.189478, -0.165225, -0.018290, -0.088167, 0.287454, 0.023329, 0.059295, -0.089518, 0.012835, };

float weightInputHiddenA[NUMBER_OF_INPUTS_A][NUMBER_OF_HIDDEN_A] =
{
{-0.172912, 0.266031, -0.410417, -0.386470, -0.410400, 0.027824, 0.038531, 0.076376, 0.105171, 0.333331, -0.277861, 0.081653, 0.141924, -0.204795, 0.107306, -0.430726, -0.156676, 0.085136, 0.141545, 0.152898, 0.011950, -0.232351, -0.499484, -0.448528, -0.094396, -0.364797, -0.090880, 0.065157, -0.457690, 0.124204,
-0.425794, -0.033757, -0.260911, 0.214856, -0.372748, -0.231034, -0.281913, -0.418632, -0.016968, 0.149951, },
{0.025804, 0.097939, 0.396935, -0.310443, 0.151629, -0.331402, 0.170526, -0.015354, -0.132178, -0.087734, -0.021146, -0.001956, 0.078263, -0.119653, -0.414344, 0.071565, 0.327286, 0.058665, -0.103622, -0.167250, -0.127924, -0.143132, 0.237000, 0.157847, 0.031018, 0.059730, 0.430212, -0.130383, 0.002457, 0.048728, 0.138637, 0.149249, 0.016315, 0.080002, -0.173014, 0.019208, -0.575828, 0.020214, -0.007779, 0.036309, },
{-0.107792, 0.269876, -0.034644, 0.002155, -0.181022, 0.048952, 0.246871, -0.087342, -0.046329, 0.116195, 0.221709, 0.194863, 0.348526, 0.178226, -0.057734, -0.178308, -0.386571, 0.022468, -0.000126, 0.172526, -0.278249, 0.127243, -0.181140, 0.217796, 0.098951, 0.253194, 0.024083, 0.296338, 0.255085, -0.309229, 0.178471, 0.150139, -0.297835, -0.190265, -0.239074, -0.246598, 0.151406, 0.032116, -0.051223, 0.157609, },
{-0.019461, -0.333990, 0.005911, 0.082514, 0.010555, -0.092103, 0.132112, 0.042024, -0.021595, 0.051192, 0.057252, -0.131754, -0.010686, 0.099416, -0.076341,
0.090432, -0.039450, 0.137177, 0.121190, 0.289414, -0.273048, -0.194803, 0.080919, 0.042722, -0.146509, 0.317030, -0.041615, -0.177947, 0.035870, -0.298505, 0.170828, -0.268194, -0.243811, -0.349262, 0.018161, -0.132942, 0.058012, -0.061036, -0.226375, 0.183333, },
{0.068623, 0.165977, -0.448239, -0.053156, -0.443013, 0.246964, 0.116812, 0.371914, 0.056400, 0.158152, -0.329365, -0.237674, -0.087321, 0.040642, -0.225361,
-0.466657, -0.266145, -0.131037, -0.159452, 0.397572, 0.205176, -0.158077, -0.116421, -0.211080, -0.202598, -0.317369, -0.364967, 0.313810, -0.509788, -0.121590, -0.225112, 0.000467, 0.009189, -0.026497, -0.346709, -0.190997, -0.118861, 0.042832, -0.031287, -0.369367, },
{0.276096, 0.148817, 0.434724, -0.014800, 0.161322, 0.004796, -0.024277, -0.008181, 0.312812, -0.111215, 0.347882, -0.213913, -0.027257, 0.102641, -0.398153,
0.373282, 0.355184, 0.337933, -0.066837, -0.069372, -0.216537, 0.000089, 0.202507, -0.088549, 0.062951, 0.059437, -0.037185, -0.537010, 0.162230, -0.096636, -0.353153, 0.239990, 0.284345, 0.015216, 0.237305, -0.226910, -0.052920, 0.248796, 0.005744, 0.379170, },
{0.189086, -0.002514, -0.055366, 0.093968, 0.326953, 0.015770, -0.089304, 0.235698, 0.175190, 0.055511, -0.161654, -0.160413, 0.165453, -0.142558, -0.284356,
-0.216408, -0.066419, 0.133278, -0.109621, 0.024389, -0.368127, 0.159802, -0.047633, 0.276724, 0.298392, 0.220339, -0.018982, 0.292227, 0.119604, -0.032460, -0.224075, -0.254707, 0.039613, -0.201230, -0.290673, 0.129922, -0.327964, -0.115165, 0.262047, 0.511549, },
{0.218561, -0.320060, -0.276265, -0.016095, 0.065670, -0.054374, -0.036972, 0.226364, 0.006199, -0.101994, 0.205953, 0.002894, 0.274283, 0.000541, 0.148217, 0.080641, -0.031771, 0.005664, 0.251831, 0.354584, -0.207817, -0.130695, -0.305174, 0.141593, 0.020282, 0.009026, -0.233240, -0.168288, -0.192551, 0.067443, 0.010382, 0.154232, 0.146080, 0.068318, -0.241715, -0.022923, 0.125629, -0.205054, -0.127661, -0.255269, },
{0.048859, 0.376317, 0.010599, -0.157039, -0.159659, -0.286203, 0.175677, 0.225921, -0.076537, 0.009813, -0.124192, -0.331523, 0.061001, -0.426879, 0.136859,
-0.127405, -0.126894, -0.058401, -0.026586, 0.345113, -0.165297, -0.222057, -0.167675, 0.136634, -0.074587, -0.261457, -0.338794, 0.395324, -0.481352, 0.179944, -0.218065, -0.159194, 0.077145, 0.192547, 0.056602, -0.344129, -0.110057, -0.354568, -0.024971, 0.070687, },
{-0.014529, 0.330123, 0.262933, -0.188670, 0.164857, -0.126721, -0.089466, 0.255014, -0.072260, -0.335062, 0.270548, -0.223430, 0.193744, 0.014620, -0.175640, 0.206865, 0.464160, 0.327888, 0.031712, -0.424498, -0.246762, -0.347481, -0.032161, -0.031102, 0.222225, 0.152567, 0.266597, -0.085733, -0.206811, -0.340204, 0.138191, 0.443699, 0.217848, -0.047150, -0.000860, -0.354299, -0.476524, 0.305877, 0.422077, 0.406187, },
{-0.004016, 0.257196, -0.020796, 0.081680, 0.122778, -0.030892, -0.164223, -0.051373, 0.327226, -0.100593, -0.224271, 0.216885, -0.073908, -0.213701, -0.139932, -0.301416, -0.137266, -0.044695, 0.260199, -0.086096, 0.092838, -0.092764, 0.059787, -0.054518, 0.330523, 0.280825, -0.376007, 0.202055, 0.010372, -0.047402, -0.218983, -0.304597, -0.093574, 0.175759, -0.421971, -0.189317, -0.383329, -0.252864, -0.146362, 0.263335, },
{0.256930, 0.049959, -0.566065, 0.340173, 0.104716, 0.023161, -0.127062, -0.374989, 0.062203, -0.242894, 0.421172, 0.273976, -0.197257, 0.194678, 0.325233, -0.497469, -0.192923, 0.133433, -0.599348, 0.428797, 0.073997, -0.066323, -0.540683, -0.175664, -0.158310, 0.001473, -0.159788, -0.411598, -0.174598, -0.165382, 0.323571, -0.350083, -0.103758, -0.046554, 0.104646, -0.186396, 0.194723, -0.206582, -0.178905, -0.025994, },
{-0.328695, 0.375158, -0.248945, -0.413631, -0.632400, 0.022832, -0.173299, 0.212620, -0.124814, -0.014048, -0.337581, -0.158026, 0.047295, 0.032565, -0.094869, -0.158453, -0.133005, -0.368792, 0.119417, -0.024492, -0.026231, -0.339286, -0.043923, -0.409363, -0.012248, 0.117122, -0.172748, 0.497437, -0.534821, -0.103961, -0.350367, 0.078525, -0.067136, 0.196236, 0.016684, -0.277152, -0.303922, 0.055856, -0.348007, 0.094103, },
{0.202760, -0.010936, 0.179348, 0.610958, -0.140179, 0.097662, -0.111564, -0.076184, 0.312748, 0.002626, -0.059035, 0.075049, 0.118804, -0.083110, -0.221608,
0.196161, 0.084868, -0.028894, 0.008371, -0.290623, -0.120593, -0.243314, 0.393985, -0.112511, 0.283869, 0.446758, 0.081456, -0.085566, -0.230628, 0.045752, 0.331904, 0.032547, 0.178072, -0.090815, 0.161056, -0.325199, -0.219254, 0.043993, 0.135868, 0.027018, },
{-0.064480, -0.064502, -0.340352, -0.264476, 0.063150, -0.145864, 0.042221, 0.003098, 0.252624, -0.173275, -0.070504, 0.262097, 0.211991, -0.206704, 0.214621, -0.078890, -0.125072, -0.172999, -0.056598, 0.347441, -0.295406, -0.109736, -0.248668, -0.142851, -0.171217, 0.217122, -0.153751, -0.160745, -0.277736, -0.248255, -0.078695, 0.148041, 0.051388, -0.088266, -0.253228, -0.026296, -0.157163, -0.274336, 0.166522, 0.121364, },
{-0.229901, 0.059499, -0.229426, 0.006327, -0.017739, 0.087314, -0.241707, -0.309954, -0.000752, -0.296747, 0.062762, -0.056213, 0.169478, 0.156697, -0.055217, -0.307692, -0.325397, -0.159596, -0.621815, 0.080286, 0.050420, 0.301535, -0.350992, 0.044900, -0.150005, 0.013840, -0.046093, -0.324096, -0.005157, -0.103858, 0.445439, -0.150303, -0.031817, 0.229150, -0.062806, -0.030796, -0.103956, -0.374313, -0.035398, -0.273199, },
{0.036527, 0.538604, 0.002321, -0.012437, -0.682548, 0.331841, 0.106832, 0.261967, -0.272600, 0.285354, -0.493321, -0.019230, -0.222115, -0.252090, 0.280187,
-0.341608, -0.352640, -0.357868, -0.002770, 0.420509, -0.133690, -0.194490, -0.319792, -0.360202, -0.315193, -0.080368, -0.145608, 0.204006, -0.262211, 0.234368, -0.051118, -0.066409, 0.163806, 0.049704, -0.016501, -0.311571, -0.285536, -0.135616, 0.117817, -0.090997, },
{-0.168066, -0.011991, 0.040149, 0.167022, -0.093861, -0.298755, -0.145399, -0.383974, -0.130747, -0.328967, -0.134272, -0.110819, 0.310048, 0.212733, 0.075672, 0.357505, 0.110897, -0.051130, -0.387481, -0.264998, 0.115394, 0.360503, 0.391720, 0.165420, -0.048758, -0.102266, 0.190603, 0.104141, -0.308834, 0.088292, -0.017203, 0.040062, 0.373164, 0.209408, 0.172637, 0.063148, -0.063775, 0.175255, -0.197793, 0.208619, },
{0.192934, 0.174688, -0.298165, -0.222974, 0.321721, -0.205382, 0.321278, -0.113660, 0.239026, 0.355680, 0.047236, 0.288981, -0.039058, 0.066193, -0.217152, -0.207184, -0.132805, 0.207963, -0.024664, -0.087473, -0.192906, -0.290278, -0.258936, -0.061652, 0.245581, -0.008906, 0.030034, -0.081881, 0.152140, -0.058180, 0.002977, -0.126840, -0.288391, 0.006841, 0.101771, -0.378311, -0.252088, -0.083914, 0.104372, -0.019905, },
{-0.022248, 0.335006, 0.036098, 0.409640, -0.161806, 0.095715, -0.224088, -0.304953, 0.257820, -0.134128, -0.088829, 0.236820, 0.106645, 0.596614, -0.177803,
-0.175736, -0.218565, -0.285453, -0.287085, 0.194136, -0.276617, 0.009006, -0.014088, 0.133658, 0.142767, 0.312734, -0.192316, 0.064747, -0.233993, 0.342705,
0.052074, 0.042394, 0.279996, -0.024711, -0.087657, -0.110609, 0.138051, 0.016527, -0.432978, -0.129512, },
{-0.206545, 0.500357, -0.103308, 0.277080, -0.392742, -0.026612, 0.036276, 0.174488, -0.340971, 0.359135, -0.494705, 0.075738, 0.169189, -0.271002, 0.310323,
-0.268445, -0.111206, -0.400333, 0.133008, 0.336299, 0.091723, -0.352248, -0.281857, -0.360349, 0.039207, -0.354726, -0.108220, 0.502686, -0.364317, 0.359993, 0.303455, -0.378313, -0.096851, 0.326810, 0.155709, 0.133218, 0.205910, 0.104224, -0.292676, 0.043606, },
{0.104350, -0.107260, 0.388257, 0.050972, -0.019479, 0.171345, -0.025358, -0.118064, -0.217582, -0.371574, -0.187227, 0.084155, 0.063363, 0.269089, 0.035837,
0.147583, 0.196886, -0.085005, -0.100661, -0.131568, -0.232036, -0.063866, -0.019747, -0.014437, 0.095755, 0.051026, 0.362299, 0.266993, -0.191288, 0.133327,
0.310370, -0.027922, 0.103922, 0.040578, -0.022215, 0.294814, 0.181910, 0.436605, -0.738835, 0.170793, },
{0.130406, 0.067633, -0.138080, 0.004378, -0.074585, -0.038426, -0.133094, -0.182283, 0.253295, 0.025883, 0.181475, 0.128823, -0.164604, -0.191100, 0.124657,
-0.209383, -0.157538, -0.052223, 0.169504, 0.392050, 0.113670, -0.070879, -0.429476, 0.398255, 0.331599, 0.208607, -0.255211, -0.133573, 0.045867, -0.042368,
-0.115358, 0.064621, 0.131454, -0.309441, -0.298193, 0.074545, 0.118110, -0.381803, 0.146437, -0.183322, },
{-0.215462, 0.140768, -0.237110, 0.437850, -0.337020, 0.217803, -0.421322, -0.034700, 0.139341, -0.167198, 0.072095, 0.345189, -0.061404, 0.595742, 0.066104,
-0.423477, -0.149107, -0.517523, -0.095411, 0.235865, -0.168387, -0.178071, -0.051281, 0.114642, 0.161547, 0.130268, -0.063575, -0.263593, 0.070662, 0.325823, 0.109634, -0.157063, -0.042135, 0.234663, -0.158024, -0.190825, -0.152400, -0.185445, -0.248471, -0.252797, },
{-0.283702, 0.552018, -0.227513, 0.012725, -0.297861, 0.325557, 0.332290, -0.204801, -0.294805, -0.124440, -0.215867, 0.127488, -0.298725, 0.024683, 0.237151, -0.172175, -0.109531, -0.240820, -0.300398, -0.159541, 0.186719, -0.305064, -0.059032, -0.256644, -0.293554, -0.297782, -0.356957, 0.269432, -0.185119, -0.028169, 0.193417, -0.174455, -0.165715, 0.107753, 0.079206, -0.130394, 0.496681, -0.119116, -0.298629, -0.082518, },
{-0.543089, -0.117440, -0.069155, 0.046505, -0.388652, 0.180790, -0.260348, -0.199009, -0.203025, -0.407580, -0.383695, 0.167424, -0.279517, 0.000537, 0.146103, -0.005472, 0.218392, -0.390227, -0.188574, 0.082889, -0.022137, 0.175028, 0.368543, 0.178136, -0.317946, 0.349986, 0.246951, 0.491267, -0.338049, 0.487029, 0.291841, 0.097637, 0.070042, 0.092327, 0.059998, 0.084797, -0.013987, 0.344242, 0.014014, -0.042150, },
{0.033128, -0.161094, -0.176180, -0.148156, 0.086773, 0.062800, -0.132153, -0.183711, -0.154304, 0.136556, 0.027910, 0.255378, 0.105956, 0.142633, 0.077718, -0.064498, -0.394301, 0.165693, 0.048230, 0.001863, 0.133042, 0.019644, -0.095518, 0.077618, 0.066787, 0.370734, -0.200227, 0.088682, 0.113026, 0.078546, 0.100894, 0.068836, -0.277488, -0.142170, -0.248739, -0.222777, 0.307371, -0.052836, -0.105613, -0.154901, },
{0.144917, 0.257789, 0.120099, 0.035431, -0.230335, 0.131020, 0.100909, 0.153547, -0.073276, 0.111561, 0.068069, 0.106668, 0.134754, 0.161137, 0.064913, -0.326319, -0.086379, -0.109182, -0.526167, -0.078879, -0.198983, 0.065467, -0.066158, 0.051137, 0.222039, 0.232741, 0.012681, -0.114565, -0.151139, 0.036362, 0.287558, -0.092611, 0.069697, -0.107312, -0.026714, 0.416329, 0.357075, 0.100704, -0.316727, -0.369763, },
{0.074394, 0.083631, 0.063006, -0.103803, -0.259580, 0.112305, -0.129176, 0.118461, -0.218524, -0.035510, -0.446907, 0.145046, 0.099919, -0.340656, 0.089936,
0.150002, -0.164795, -0.171132, 0.014395, 0.111121, 0.330685, 0.190679, 0.013497, 0.152274, -0.166020, 0.116834, 0.184885, 0.475604, -0.313883, 0.058829, 0.256768, -0.007948, 0.110954, 0.174422, -0.249324, 0.207238, 0.190678, -0.085345, -0.149434, -0.249199, },
{-0.105275, -0.052216, 0.054956, 0.311582, -0.099503, 0.199351, -0.342086, -0.289771, 0.220494, -0.482104, -0.041666, 0.326525, -0.125192, 0.049477, -0.057119, -0.037092, -0.128614, -0.200897, 0.058535, -0.045987, 0.044134, 0.143401, 0.101852, -0.134310, -0.034951, 0.046782, 0.302744, 0.196813, -0.330818, -0.096593, -0.089055, -0.175016, 0.063582, -0.095239, 0.116698, -0.061167, 0.244452, 0.360176, -0.323132, -0.371661, },
{-0.130695, -0.185874, -0.108592, 0.056232, 0.127612, 0.058898, -0.171128, 0.154967, -0.159258, -0.001326, -0.010734, -0.071211, 0.131685, 0.073603, 0.181596, -0.113377, 0.033808, 0.081255, 0.227604, 0.376465, 0.054933, 0.236023, -0.146897, 0.275906, -0.073984, 0.367884, 0.128622, 0.089673, 0.267232, 0.147228, -0.057968, 0.033309, 0.005850, -0.112853, 0.115925, 0.221282, -0.147995, -0.341487, -0.020535, -0.097574, },
{0.156322, -0.135529, 0.009568, 0.082274, 0.134965, 0.419948, -0.371246, -0.169014, 0.066404, -0.158438, -0.154885, -0.195592, 0.005846, 0.020386, 0.020652, 0.022612, -0.050976, -0.011667, -0.422598, 0.173538, -0.199389, -0.129268, -0.496654, 0.356444, 0.203490, -0.109403, -0.416319, -0.065497, 0.128820, 0.371933,
0.384236, -0.368213, -0.390471, -0.105717, 0.246628, -0.138067, 0.066825, -0.317948, -0.037012, -0.224769, },
{0.060491, 0.478467, -0.228608, 0.242360, -0.344788, -0.007779, -0.221299, -0.225102, -0.015063, -0.211605, -0.488554, -0.197260, 0.154701, 0.144052, 0.167015, -0.065434, -0.364362, 0.002161, -0.368031, 0.049469, 0.244377, -0.247952, -0.373830, -0.105027, -0.297017, 0.067595, -0.217875, -0.001914, -0.402647, 0.080583, 0.231279, -0.306425, 0.041642, 0.238092, 0.029816, 0.039783, 0.026943, -0.391472, 0.058736, -0.216711, },
{-0.335813, 0.140162, -0.341157, 0.285907, -0.368431, 0.312111, -0.182214, 0.073940, -0.188268, -0.665195, -0.487078, 0.289801, 0.036201, -0.242955, 0.259748, -0.052585, -0.007273, -0.028381, -0.089697, -0.398961, 0.104090, -0.154997, -0.137084, -0.101117, 0.086829, 0.139418, 0.234932, 0.076918, -0.139105, 0.090607, 0.359931, 0.157769, -0.152678, -0.040258, 0.325145, 0.144432, -0.093443, -0.107562, -0.090514, -0.184266, },
{-0.081926, -0.125321, 0.055731, 0.062261, -0.207250, 0.328108, -0.097330, -0.232867, 0.243421, -0.169162, -0.125387, 0.152189, -0.078356, -0.064176, 0.136380, -0.240514, 0.090142, -0.250585, 0.096953, -0.114234, -0.256407, 0.171621, 0.017431, 0.266973, 0.286029, 0.241196, -0.286344, 0.078846, -0.017932, 0.305636,
-0.039082, -0.157046, -0.116217, -0.316984, 0.129863, 0.279707, 0.134249, -0.196350, -0.376286, -0.045384, },
{0.095384, 0.208200, -0.062357, 0.322463, -0.439318, 0.025225, -0.351268, -0.010866, 0.012386, -0.305581, 0.013592, -0.200481, 0.298587, 0.066077, -0.034281,
0.031921, -0.056674, -0.394136, -0.143119, -0.111644, 0.179058, 0.169351, 0.154868, 0.041723, 0.222936, -0.162726, -0.256964, 0.104290, -0.178810, 0.200971, 0.053835, -0.143701, -0.063164, -0.215949, 0.234806, -0.073922, -0.065861, 0.039008, -0.239482, -0.279581, },
{-0.190214, 0.678811, 0.191748, -0.002052, -0.131460, 0.037687, 0.225189, -0.361440, -0.158076, -0.438090, -0.206837, 0.069318, -0.271614, -0.035148, 0.053882, -0.011724, -0.057897, -0.012031, 0.072248, -0.007690, 0.285989, -0.085784, -0.011307, 0.073536, 0.057299, -0.022749, 0.011553, 0.546293, -0.042569, 0.088251, 0.043971, -0.342939, 0.061259, 0.210444, 0.199533, 0.198927, -0.266527, -0.007735, -0.366217, -0.144349, },
{-0.123112, 0.374606, -0.150348, 0.316067, 0.023536, 0.300306, -0.368719, -0.138826, -0.104304, -0.432298, -0.171812, 0.545504, -0.387763, 0.085763, 0.088649, 0.152199, 0.184592, -0.207042, -0.244660, 0.139530, 0.158550, -0.064314, 0.159261, 0.064574, 0.128407, -0.056126, -0.127916, 0.155793, -0.463739, 0.412621, 0.021143, -0.151046, -0.190562, 0.059404, 0.373889, 0.207616, 0.445068, -0.129382, -0.418616, -0.410093, },
{-0.386218, 0.397917, -0.376809, 0.282494, -0.221727, 0.187080, -0.198074, -0.274390, 0.186482, -0.420785, 0.063809, 0.350922, 0.068923, 0.161029, 0.215144, -0.059613, -0.076487, -0.151838, -0.339123, 0.014239, -0.350861, -0.142153, 0.003296, 0.463330, -0.127796, 0.358232, -0.145853, 0.212290, -0.108080, -0.061083, 0.342282, -0.072509, 0.129751, -0.220781, 0.379433, 0.283321, 0.261366, 0.176979, 0.007930, -0.124822, },
{-0.407847, 0.436939, -0.268967, 0.467248, -0.354815, -0.105739, -0.064982, -0.166589, 0.272577, -0.303889, -0.172034, -0.188353, 0.274306, -0.108714, -0.069624, 0.221390, -0.116949, 0.042714, -0.418580, -0.050699, -0.197493, 0.315578, -0.009570, 0.291637, -0.285796, -0.108818, 0.148779, 0.043023, -0.024698, 0.336853, 0.380813, -0.011824, -0.088368, 0.188097, -0.007490, -0.033732, 0.206740, 0.392901, 0.111979, -0.292748, },
};
float weightHiddenOutputA[NUMBER_OF_HIDDEN_A][NUMBER_OF_OUTPUTS_A] =
{
{-0.200004, -0.441193, 0.461275, 0.001425, 0.169598, },
{0.428769, -0.227303, -0.170929, 0.208781, -0.501657, },
{-0.127029, -0.550485, -0.033347, 0.572177, 0.082127, },
{0.572248, -0.373006, -0.313760, 0.144206, -0.025080, },
{-0.329034, 0.216815, 0.549146, 0.158168, 0.452657, },
{0.175902, 0.622867, -0.483161, -0.370455, 0.235243, },
{-0.282747, 0.627308, 0.240182, 0.067620, -0.529926, },
{-0.436157, 0.299175, 0.353569, -0.046062, -0.317408, },
{0.165706, -0.359443, 0.303905, -0.452902, 0.310248, },
{-0.574604, 0.437498, 0.356448, -0.068208, 0.168241, },
{-0.459853, -0.046899, 0.197284, -0.321379, 0.428078, },
{0.274450, -0.076776, 0.065526, -0.228294, 0.566379, },
{0.191347, -0.166387, 0.295609, 0.011569, 0.189049, },
{-0.245667, -0.381000, -0.180640, -0.310703, 0.316995, },
{-0.077042, 0.535896, -0.226178, -0.040624, -0.437294, },
{-0.211502, -0.412055, -0.564064, 0.331685, 0.538391, },
{-0.403471, -0.398092, -0.168799, 0.074421, 0.455052, },
{-0.566076, -0.443423, 0.241758, -0.095275, 0.262727, },
{-0.294735, 0.081857, 0.394731, 0.274978, -0.113506, },
{0.467158, 0.475782, 0.543107, -0.426323, -0.308160, },
{-0.124512, 0.518672, 0.145774, 0.501898, -0.355095, },
{0.029835, -0.195449, -0.000076, -0.545021, 0.504855, },
{-0.372445, -0.202091, -0.230439, 0.559520, 0.507469, },
{0.688326, -0.513120, 0.335051, -0.132156, 0.145794, },
{-0.097513, -0.407929, 0.216865, -0.312551, 0.199080, },
{0.279440, -0.294979, 0.148005, -0.257862, 0.234817, },
{-0.500153, -0.307898, -0.360521, 0.663902, 0.195633, },
{0.648834, -0.056717, -0.140641, 0.414637, -0.448693, },
{-0.256587, -0.090917, 0.428963, -0.306177, 0.477493, },
{0.212917, 0.590215, -0.497125, -0.306491, -0.000450, },
{0.651876, -0.258009, -0.450706, -0.044726, 0.496432, },
{-0.418143, -0.391622, -0.121604, 0.434235, 0.155600, },
{-0.023916, -0.210489, -0.162826, 0.496464, -0.033737, },
{-0.035458, 0.297232, -0.490058, 0.489035, 0.274766, },
{-0.216382, 0.351400, -0.484545, 0.216190, 0.606462, },
{-0.205859, 0.316903, -0.509971, -0.186644, 0.486354, },
{-0.147368, 0.390130, -0.313297, -0.615442, 0.394853, },
{-0.179404, -0.303282, -0.091601, 0.374650, 0.521313, },
{-0.530744, -0.407600, 0.471452, 0.560692, -0.192452, },
{-0.108453, -0.519864, 0.285988, 0.520006, 0.091253, },
};
float biasHiddenA[NUMBER_OF_HIDDEN_A] = {0.039078, -0.050985, -0.069181, -0.099285, -0.173158, -0.354883, 0.379735, 0.032204, 0.343681, 0.348191, -0.278355, -0.169231, -0.146013, -0.112312, -0.493038, -0.078250, 0.195117, 0.123477, 0.139427, -0.173435, -0.138771, 0.010342, 0.246643, 0.088588, 0.082053, 0.056672, 0.130522, -0.054518, -0.088589, 0.008980, -0.317416, 0.308158, -0.024176, 0.134263, 0.098529, 0.047371, -0.070893, 0.075600, 0.299413, 0.193199, };
float biasOutputA[NUMBER_OF_OUTPUTS_A] = {0.230463, -0.099822, -0.131950, 0.310858, -0.074284, };
void classSystemScaleDataInput(float * vetor) {
	const int ind_min[] = {0,0,0,0,0,0,0,0,0,0,0,126};
	const int ind_max[] = {1480, 2188, 2415, 2809, 2047, 2158, 3519, 3442, 34, 2322, 3725, 3748};
	for(uint8_t i = 0; i < NUMBER_OF_INPUTS; i++) {
		float xStd = (vetor[i] - ind_min[i]) / (ind_max[i] - ind_min[i]);
		vetor[i] = 2 * xStd - 1;
	}
}

void classSystemPredict(float * entrada, float * saida) {
	float oculta[NUMBER_OF_HIDDEN];
	float sum = 0;

	for(int i = 0; i < NUMBER_OF_HIDDEN; i++) {
		sum = 0;
		for(int ii = 0; ii < NUMBER_OF_INPUTS; ii++) {
			sum += entrada[ii] * weightInputHidden[ii][i];
		}
		oculta[i] = tanhf(sum + biasHidden[i]);
	}

	for(int i = 0; i < NUMBER_OF_OUTPUTS; i++) {
		float sum = 0;
		for(int ii = 0; ii < NUMBER_OF_HIDDEN; ii++) {
			sum += oculta[ii] * weightHiddenOutput[ii][i];
		}
		saida[i] = tanhf(sum + biasOutput[i]);
	}
}

char classSystemPostProcess(float * saidas) {
	float max = 0;
	int ind = 0;
	for (int i = 0; i < NUMBER_OF_OUTPUTS; i++) {
		if(max < saidas[i]) {
			max = saidas[i];
			ind = i;
		}
	}
//				 #A, B, C, D, E, F, G, H-K-P(1), I-J(2), L, M, N, O, Q, R, S, T, U, V, W, Y, X-Z(3)
	char ret[] = {'A', 'B', 'C', 'D', 'E','F', 'G', '1', '2', 'L', 'M', 'N', 'O', 'Q', 'R', 'S', 'T', 'U', 'v', 'W', 'Y', '3'};
	return ret[ind];
}

void classSystemScaleDataInputA(float * vetor) {
	const int ind_max[] = {20880,3440,17076,12,21216,3576,17432,13,21272,3668,17444,177,20828,4844,17700,175,21968,4564,18552,179,21200,4944,18548,172,21704,4372,19756,16,21328,3540,20016,12,19620,3296,20420,12,18832,3916,19512,12,};
	const int ind_min[] = {-8708,-13040,-6600,-165,-12256,-11776,-6272,-169,-14948,-13720,-5884,-170,-12324,-13740,-5332,-178,-16268,-13212,-10744,-179,-9840,-15680,-16452,-164,-8768,-15712,-16460,-162,-8760,-20520,-18076,-156,-8108,-18044,-17268,-163,-6772,-20080,-17432,-178,};
	for(uint8_t i = 0; i < NUMBER_OF_INPUTS_A; i++) {
		float xStd = (vetor[i] - ind_min[i]) / (ind_max[i] - ind_min[i]);
		vetor[i] = 2 * xStd - 1;
	}
}

void classSystemPredictA(float * entrada, float * saida) {
	float oculta[NUMBER_OF_HIDDEN_A];
	float sum = 0;

	for(int i = 0; i < NUMBER_OF_HIDDEN_A; i++) {
		sum = 0;
		for(int ii = 0; ii < NUMBER_OF_INPUTS_A; ii++) {
			sum += entrada[ii] * weightInputHiddenA[ii][i];
		}
		oculta[i] = tanhf(sum + biasHiddenA[i]);
	}

	for(int i = 0; i < NUMBER_OF_OUTPUTS_A; i++) {
		float sum = 0;
		for(int ii = 0; ii < NUMBER_OF_HIDDEN_A; ii++) {
			sum += oculta[ii] * weightHiddenOutputA[ii][i];
		}
		saida[i] = tanhf(sum + biasOutputA[i]);
	}	
}

char classSystemPostProcessA(float * saidas) {
	float max = 0;
	int ind = 0;
	for (int i = 0; i < NUMBER_OF_OUTPUTS_A; i++) {
		if(max < saidas[i]) {
			max = saidas[i];
			ind = i;
		}
	}
	char ret[] = {'-', 'K', 'J', 'H', 'X'};
	return ret[ind];
}
